<?xml version="1.0"?>
<opencv_storage>
<my_svm type_id="opencv-ml-svm">
  <svm_type>C_SVC</svm_type>
  <kernel><type>LINEAR</type></kernel>
  <C>1.</C>
  <term_criteria><epsilon>2.2204460492503131e-16</epsilon>
    <iterations>1000</iterations></term_criteria>
  <var_all>1024</var_all>
  <var_count>1024</var_count>
  <class_count>2</class_count>
  <class_labels type_id="opencv-matrix">
    <rows>1</rows>
    <cols>2</cols>
    <dt>i</dt>
    <data>
      0 1</data></class_labels>
  <sv_total>1</sv_total>
  <support_vectors>
    <_>
      -2.68627417e-07 3.53646215e-07 1.48873038e-08 0. 6.34975038e-07 0.
      -8.06470055e-08 3.70421986e-07 5.99724615e-07 1.20200627e-06
      -6.55407121e-07 -6.23523363e-07 4.75232810e-07 6.27821294e-07
      2.19515914e-06 9.26835526e-07 1.24799988e-06 -3.94205017e-07
      -2.46035574e-06 4.47838511e-06 -1.13795124e-06 7.69327187e-07
      3.44529298e-07 -7.08774166e-07 1.17811069e-07 -4.10680656e-07
      -4.10792751e-07 -7.82834604e-07 -4.21412693e-07 2.65643280e-07
      -5.85765633e-07 2.68299914e-07 1.10428437e-06 7.59084230e-07
      2.48498679e-07 0. 9.51139043e-07 4.49180504e-07 -1.53145280e-07
      -8.06470055e-08 1.23723191e-06 -4.22543167e-07 2.31020124e-07
      8.58567489e-07 2.65800878e-07 9.71800546e-07 7.89232388e-07
      -8.84690792e-07 -2.02876663e-06 8.35811989e-07 2.67074302e-06
      -5.17161652e-07 7.81011067e-07 -2.18283913e-06 3.23078353e-07
      2.06060759e-06 9.30431270e-08 -4.64834358e-07 -1.81688540e-06
      1.84579039e-06 6.05739842e-07 -2.15099575e-07 2.48411283e-07
      -1.02698188e-07 -6.98548888e-07 -2.29717912e-07 1.13405895e-06
      -1.27462158e-07 1.87980419e-07 2.52933914e-05 3.56566306e-05
      -1.05707632e-05 -3.48736830e-05 1.45537242e-05 -1.02178333e-07
      -9.35080243e-05 -6.58916833e-05 2.08279616e-05 4.00812314e-05
      6.66781270e-05 6.14571763e-05 5.28965029e-05 -4.41107259e-05
      -3.41370833e-05 -5.67952666e-05 -3.61237690e-05 -9.24320602e-07
      4.95523236e-05 6.35799879e-05 3.24504640e-06 -6.00171006e-05
      -1.23477534e-07 -1.53145280e-07 3.41736836e-07 -3.83125155e-07
      1.83084876e-06 7.40843973e-07 -3.49274444e-07 -2.68627417e-07
      7.97993778e-07 2.51586869e-07 1.39975484e-04 3.17059930e-05
      -6.96777861e-05 -9.34707077e-06 2.89466442e-07 -8.34796301e-05
      -7.08044681e-05 9.70661640e-05 1.34833201e-04 2.06425015e-04
      1.24165395e-04 8.02930081e-05 1.67504273e-04 2.09563776e-04
      1.67939608e-04 -6.44848042e-05 -8.64598478e-05 -1.32941759e-05
      -9.53665506e-07 4.75092420e-05 4.42335513e-05 -6.91034147e-05
      -9.19688830e-07 4.66502001e-07 6.31524244e-07 0. -5.67482687e-07
      0. -2.86867703e-07 1.29226476e-06 4.58793721e-07 -3.92015210e-07
      1.40464748e-04 -8.43917005e-05 -6.05675232e-05 1.13707392e-06
      8.92342271e-08 -6.30787690e-05 6.13723605e-05 1.74203640e-04
      9.97816896e-05 9.34376149e-05 1.01889273e-04 1.48299878e-04
      7.46337464e-05 6.53483512e-05 1.95879999e-04 2.15845168e-04
      -4.56949238e-05 -3.10015166e-05 -5.42167925e-07 -1.14389204e-05
      9.87089370e-05 -4.67447207e-05 -3.36398057e-06 5.33133061e-07
      9.72377507e-07 -1.27066971e-06 6.65618359e-07 1.10428437e-06
      1.78186298e-07 -4.98345344e-07 -9.88445972e-05 -9.10005983e-05
      7.04379418e-05 -6.43762614e-05 4.66576785e-06 -1.79003095e-07
      9.02811976e-08 -8.60582222e-05 -4.51408268e-05 1.13186048e-04
      1.85416102e-05 3.95444440e-05 5.84396512e-05 1.47265207e-04
      6.91501700e-05 4.04675920e-05 3.02804492e-05 2.23204057e-04
      2.59231001e-05 -2.17854813e-05 -1.85738358e-07 2.52705991e-06
      6.69399597e-05 1.22024585e-05 -8.66909104e-05 -2.04386506e-05
      -3.00167386e-07 8.94389075e-07 -2.34831532e-08 -1.53145280e-07
      2.58452951e-06 -1.05147528e-07 -4.19193639e-05 1.57890478e-04
      1.63729215e-04 -2.10295056e-07 -2.68627417e-07 8.29184444e-07
      -1.73092576e-06 -6.43131280e-05 8.83218017e-05 8.63494570e-05
      8.15458179e-07 4.12468762e-05 1.06869120e-04 1.47031446e-04
      8.56036495e-05 3.28800888e-05 -5.83273902e-07 1.54422611e-04
      1.89847604e-04 7.60009571e-05 2.99434134e-07 -4.46013871e-07
      2.31989191e-07 9.78937751e-05 3.44357250e-05 5.83017254e-06
      -1.75382422e-06 4.52511415e-07 -1.98496721e-07 5.52142183e-07
      -2.80607424e-07 1.04259902e-06 1.40138960e-04 1.25462568e-04 0.
      9.22564141e-07 2.70813302e-07 1.97900761e-07 4.86648105e-06
      -2.20580314e-05 -5.53968175e-06 4.62858480e-07 -6.44033150e-07
      1.83365173e-05 5.92780088e-05 1.46916238e-04 5.89844967e-05
      1.74553625e-05 7.49444098e-07 8.81541018e-06 1.07281332e-04
      8.23645532e-05 4.88902424e-06 -1.23538939e-07 -3.06148024e-07
      4.63978381e-07 4.53251305e-05 3.70382222e-05 4.72958732e-07
      -2.11976356e-08 6.52902656e-07 -3.31975843e-06 -2.81955090e-06
      -7.25644031e-06 7.31010150e-05 -3.16833575e-06 -5.14348756e-07
      -1.09935645e-05 -7.77372952e-06 -1.27887151e-05 3.04563600e-05
      -2.79304040e-05 -8.44517926e-05 -4.49433974e-05 -4.54279962e-06
      -6.69689462e-06 8.97044229e-05 1.44293954e-04 1.21814650e-04
      -2.11142687e-05 5.21502670e-07 -2.27915752e-05 4.43650533e-05
      8.75552287e-05 1.31556677e-04 -1.37516295e-07 6.64475635e-07
      8.45412615e-07 -8.75812532e-07 2.01067032e-05 -8.68386053e-07
      -4.78009611e-07 7.84131373e-07 6.70054305e-06 -1.81567284e-05
      2.92437035e-05 3.81123664e-06 -5.92426004e-05 -3.80914935e-05
      -5.16556465e-05 1.41841781e-04 2.01744813e-04 2.20127826e-04
      2.13512831e-04 1.68597326e-04 1.52565510e-04 1.52898283e-04
      1.66250029e-04 2.21212264e-04 3.80733662e-04 1.67736522e-04
      1.73493259e-04 1.04075851e-04 1.26096042e-04 -7.64636643e-05
      3.19254817e-04 3.24984750e-04 1.97021189e-04 1.39969197e-04
      1.39795346e-04 1.37260184e-04 7.55358924e-05 3.82414811e-07
      -4.54089900e-07 -1.42810552e-06 -6.11975338e-06 -2.74292279e-06
      -3.25083274e-05 -4.89386584e-05 -5.12160150e-05 -4.26848019e-05
      1.97632340e-04 1.94003573e-04 -3.78082404e-05 -1.21348439e-05
      -7.24293350e-05 8.73118466e-08 1.29025400e-04 7.85433513e-05
      1.12158406e-04 2.83005618e-04 3.27846268e-04 3.32849362e-04
      1.44854625e-04 2.02527212e-04 2.72447965e-03 7.91570128e-05
      -9.79942270e-05 6.05675341e-05 2.33473065e-06 6.79870072e-06
      -1.13999515e-04 -1.15156341e-04 -3.54146796e-05 -4.68656111e-07
      -1.58661487e-06 1.94624317e-06 -3.62835249e-06 -9.99201166e-06
      5.11231462e-07 -3.33786302e-05 -9.38896701e-05 1.84930919e-04
      1.21249432e-04 -7.58507231e-05 -4.35001166e-05 -2.62798949e-05
      2.11704188e-04 -7.59702234e-05 -1.03257618e-04 -1.46425024e-04
      -1.19503587e-04 4.60425872e-06 7.56450099e-05 1.49973073e-06
      -1.34240399e-04 8.02724826e-05 8.50103061e-06 -4.09616245e-04
      3.66800028e-04 9.48445304e-05 7.10710301e-05 1.28234926e-04
      1.96196692e-04 1.26963161e-04 3.04618770e-05 -6.02874081e-07
      2.39525252e-06 -8.49683943e-07 2.77125328e-05 6.63071262e-07
      -1.98504513e-05 1.29405380e-04 2.20980975e-04 3.64987973e-05
      3.45087101e-05 -1.27072937e-07 -1.62836768e-05 -2.88381252e-05
      2.39859131e-04 -3.12322918e-05 -3.84738314e-06 -4.54120491e-05
      -3.25627843e-05 1.21868237e-04 1.22126483e-04 5.02353287e-05
      5.58299580e-05 -1.28402271e-05 3.23137414e-04 -2.36472813e-03
      2.27990051e-04 2.34796221e-06 -3.77370696e-07 -1.10088922e-06
      4.78289257e-06 1.25693346e-04 6.17715705e-05 -4.15582690e-07
      -1.43884279e-06 1.01726926e-06 -1.66266564e-05 -8.29510645e-06
      1.26605155e-05 1.97508169e-04 -2.01117709e-05 -4.27339046e-06
      -1.65781312e-05 -1.24766734e-06 -2.01361927e-05 2.46269956e-05
      2.12700848e-04 -3.55359316e-06 -1.71329816e-06 -6.14289602e-05
      -1.31459319e-05 5.91881644e-06 5.59298933e-05 2.76003539e-05
      -6.41828010e-05 -4.94036249e-05 3.41907929e-04 -1.81581965e-03
      2.31840764e-04 7.82300995e-05 -9.55984092e-08 8.68860582e-07
      -1.35699395e-06 -1.89549633e-06 8.68537390e-05 1.34765486e-07
      -1.30996852e-07 2.11195311e-06 -5.80209917e-06 -1.29285936e-05
      9.46824093e-06 2.05148768e-04 1.20828045e-05 2.41055186e-05
      1.29236842e-05 2.88898445e-06 -1.54097579e-05 1.89437451e-05
      2.27669720e-04 -4.84303127e-05 -3.14468639e-06 -5.77169958e-05
      -1.26836321e-05 9.43867926e-05 5.21244910e-05 1.74352099e-04
      -1.21329886e-05 -1.61687567e-05 5.16968081e-04 3.22776614e-03
      2.66997929e-04 -2.36041415e-05 7.02567775e-07 -1.72973669e-05
      -1.46833872e-06 9.68974632e-07 -2.76050177e-05 5.07534992e-07
      -1.77056876e-07 9.11330389e-08 1.03366858e-07 1.20483710e-05
      -8.73006320e-06 4.61181131e-04 9.44377738e-04 1.95740449e-05
      3.84184823e-04 2.00028997e-04 1.51010885e-04 4.44278441e-04
      4.39317839e-04 4.36281669e-04 1.68377272e-04 1.88680249e-03
      2.65424547e-04 1.48301269e-03 4.44164150e-04 6.80731409e-06
      3.75906930e-05 -3.81660429e-05 -2.25311072e-04 3.55315104e-04
      1.32432193e-04 7.55291039e-05 -8.71067969e-05 -6.98150398e-05
      -9.29517337e-05 -6.71802482e-05 -2.47561082e-04 -3.30195718e-07
      -6.11860912e-07 1.12534497e-06 -2.95494897e-06 -3.32781310e-05
      -1.22194422e-06 -1.26550840e-05 -6.52289527e-05 -8.15972544e-06
      8.24313174e-05 3.01643231e-05 4.57374335e-05 4.78420734e-05
      4.52768465e-04 9.35767675e-05 -1.38057567e-05 1.15989042e-06
      -5.81994318e-05 1.11050453e-04 5.21282982e-06 2.10909948e-05
      -2.36652450e-05 -3.78206153e-07 -4.94575070e-05 3.65545246e-04
      7.77965979e-05 -1.11512156e-04 -9.98905598e-05 -9.31760151e-05
      -8.62160960e-05 -7.14123526e-05 -2.21976676e-04 4.05158562e-06
      -1.72585629e-07 -9.48487650e-06 1.00101854e-04 -4.85515056e-06
      6.99117227e-05 -5.86298760e-04 2.34487146e-04 -5.60891523e-04
      -1.52950481e-04 -5.91112650e-04 -1.23402322e-04 -5.71947836e-04
      5.73050347e-04 7.99795744e-05 -9.53821000e-04 2.66478455e-04
      -3.26136535e-04 -2.75722326e-04 8.11761784e-05 3.49581795e-04
      2.24860982e-04 5.46365918e-04 1.36789784e-03 3.63271625e-04
      2.21192749e-04 -1.23608934e-05 -1.32538598e-05 6.80238008e-05
      1.13755477e-05 5.69563381e-05 -2.89959262e-05 -1.22124629e-06
      -5.65003484e-06 5.93135792e-06 -1.20058357e-05 -1.03613752e-06
      -6.14782475e-05 2.65434181e-04 -1.67461212e-06 -3.32593081e-05
      -6.79347022e-06 1.30775688e-05 -3.39664689e-06 1.35673918e-05
      3.82446713e-04 1.70076510e-05 -3.34259421e-05 -7.58136157e-05
      -5.12256229e-05 1.15704148e-04 2.12772484e-05 1.85588200e-04
      6.90114393e-05 -1.58635721e-05 -4.43363655e-03 3.83018923e-04
      1.44313191e-04 9.96002491e-05 -1.19837898e-06 -6.53923007e-06
      -6.08461914e-06 1.26932546e-05 -2.82963247e-05 5.97995950e-06
      -1.81291296e-06 -5.85336829e-06 -3.51147864e-05 -6.57563169e-06
      1.28697184e-05 2.25160518e-04 2.25334312e-04 -5.12399893e-05
      3.94554772e-05 2.28495355e-06 -7.39531197e-06 -2.07429002e-06
      3.63745115e-04 1.28781458e-05 -6.94112396e-06 -4.75731613e-05
      -3.90826426e-05 9.20343591e-05 4.66546844e-05 2.02662501e-04
      -6.82416430e-05 8.75943715e-06 -1.48245331e-03 -3.48074333e-04
      2.43000977e-04 -4.12264017e-05 -2.68275312e-06 -8.31580337e-07
      9.39977781e-06 5.69831500e-05 9.65995787e-06 -1.57339618e-05
      1.87195019e-05 3.56331867e-07 -2.74397917e-05 5.32511804e-05
      1.12759992e-07 -9.88224492e-05 1.15867733e-04 2.38694032e-04
      7.45335637e-05 3.47342439e-06 -2.51736165e-05 4.99362832e-05
      3.05219670e-04 4.41119300e-05 -8.82554232e-05 -6.52117451e-05
      -6.22605075e-05 1.15848736e-04 9.41376129e-05 2.67491687e-05
      -2.59195294e-05 3.76606636e-06 -1.13607058e-03 -1.66145939e-04
      2.18663205e-04 -2.85299257e-06 2.41063317e-05 6.63385581e-05
      1.48621155e-04 1.82844480e-04 8.35399187e-05 3.08308950e-06
      -8.46849889e-06 -4.04881803e-06 -2.76713081e-07 5.96643440e-05
      -1.32164469e-05 -5.42424095e-05 -2.61170335e-05 -7.47737386e-06
      2.37740023e-04 2.11794468e-04 -8.21653430e-06 5.55904080e-05
      1.99733950e-06 8.89203438e-05 2.21747279e-04 1.70027168e-04
      1.41758675e-04 2.80804787e-04 1.59021467e-04 3.33239994e-04
      3.15556565e-04 3.39298975e-04 -9.14164935e-04 -8.86025009e-05
      1.97620859e-04 1.61935488e-04 1.62244032e-04 1.74623463e-04
      1.50005391e-04 -1.04569539e-04 -5.25381729e-05 1.30255512e-06
      -5.76950106e-06 -2.76319929e-06 3.23344866e-05 -2.67424298e-06
      -1.02881786e-04 -3.38832615e-05 -1.72328830e-04 -1.90272127e-04
      -1.57178161e-04 8.69994328e-05 7.58176466e-05 1.43167621e-04
      3.24784312e-04 3.65174172e-04 2.73805286e-04 2.36995256e-04
      3.45317472e-04 3.08476709e-04 1.91807820e-04 2.53549515e-04
      1.39504627e-04 2.64821167e-04 1.69619467e-04 -1.58178166e-03
      -9.89743974e-04 9.05836059e-04 -1.94544511e-04 -2.66126532e-04
      -2.28318226e-04 -1.73219523e-04 -3.60596750e-05 -1.02559250e-06
      -1.26928016e-05 1.01140331e-05 -7.75726494e-06 3.61648636e-05
      -1.46631774e-05 2.67126761e-05 2.90201315e-05 -1.04392791e-04
      -5.39899775e-05 -1.47560086e-05 -3.66095228e-05 1.04166626e-04
      2.92629229e-05 9.54492498e-05 -4.87541874e-05 -5.56968807e-05
      -1.84841119e-05 -5.52057099e-06 -1.16265859e-04 -1.36750225e-06
      3.02456356e-05 -5.86014976e-05 4.89585909e-05 1.56604190e-04
      1.44643214e-04 3.27216985e-05 2.08161637e-05 -3.32287436e-06
      -7.56285363e-06 3.94552035e-06 -5.31268051e-06 -1.64761025e-06
      4.50056359e-06 3.29083718e-07 0. 0. 0. 0. 0. 0. 0. 0.
      -1.03911555e-06 3.82631952e-05 1.19061457e-04 1.55436821e-04
      2.44122907e-06 -2.71925296e-06 1.34529159e-06 -6.60198712e-05
      -8.39864297e-05 -6.76109175e-06 -1.12237210e-07 5.06644255e-07
      8.83074517e-06 1.81630341e-04 1.02042184e-04 1.38077951e-07
      7.58974750e-07 -1.52366226e-07 1.61650604e-07 2.94562233e-06
      2.04586777e-05 -2.30505393e-07 -5.29976603e-07 8.08253020e-08 0.
      0. 0. 0. 0. 0. 0. 0. 9.51000288e-07 -5.49623735e-07 1.27017789e-04
      1.81047668e-04 7.38450126e-07 1.22694451e-06 2.87885058e-07
      2.08858655e-05 -8.31381039e-05 4.52988897e-05 -7.16987472e-07
      1.82845667e-06 1.55633024e-05 2.75130005e-04 8.53761740e-05
      -1.28064414e-06 8.08253020e-08 -7.75508738e-07 5.50599680e-06
      2.12880095e-05 4.42615201e-05 -5.29384465e-07 -4.66272070e-07 0.
      0. 0. 0. 0. 0. 0. 0. 0. -7.29570900e-07 1.60418224e-07
      1.89645398e-05 2.53865292e-04 -6.11482960e-07 -1.22007270e-06
      -1.07819653e-06 -5.07700388e-05 -8.34938037e-05 -2.60453598e-05
      1.02108800e-06 -3.88173902e-07 1.42399193e-04 2.17081295e-04
      2.55023606e-05 9.84086569e-07 1.14033912e-06 2.40480185e-05
      1.96975475e-06 -7.13769114e-05 -9.67102460e-05 -2.14722586e-08
      8.57635456e-08 -2.91846817e-07 0. 0. 0. 0. 0. 0. 0. 0.
      -3.41952159e-07 2.03407808e-06 1.31367260e-05 1.67859747e-04
      1.21145473e-04 4.32882189e-07 2.66845859e-06 6.86252588e-06
      -8.53237798e-05 2.43640716e-05 -3.12728730e-07 7.89032056e-05
      1.45143800e-04 1.31386623e-04 1.16719944e-04 1.22771598e-06
      2.63747352e-05 -8.45596660e-05 -1.46872699e-04 -1.22288227e-04
      -4.91274004e-05 -2.91846817e-07 -6.12784902e-07 -8.26169526e-07 0.
      0. 0. 0. 0. 0. 0. 0. 6.43640874e-07 -7.42979807e-07
      -3.76613243e-05 1.53310131e-04 1.77403097e-04 1.19502030e-04
      1.00247773e-04 3.87922992e-05 2.71445970e-06 1.03631042e-04
      9.59360696e-05 2.18334666e-04 9.80317345e-05 1.47020575e-04
      -1.49451148e-06 1.55688315e-06 -4.46344093e-05 -1.33311332e-04
      6.21106437e-06 -1.51774117e-07 -1.66688471e-06 3.76103088e-07
      -3.16725068e-09 0. 0. 0. 0. 0. 0. 0. 0. 0. -1.27767316e-06
      1.11352585e-06 3.43379065e-06 4.96207140e-05 1.10919682e-04
      2.41187241e-04 2.24378047e-04 1.62907672e-04 1.30760469e-04
      2.14558531e-04 2.41020709e-04 9.76002630e-05 5.75647427e-05
      -2.87487746e-05 -7.93846255e-07 2.94023066e-05 -6.72641836e-05
      4.50982134e-06 -6.67575193e-07 -1.13750025e-06 2.18563036e-06 0.
      -2.47850858e-06 2.25244122e-07 0. 0. 0. 0. 0. 0. 0. 0.
      4.69260129e-07 2.23910979e-06 1.99991632e-06 -1.24425117e-06
      7.46387514e-07 -1.74324236e-06 2.07236849e-06 2.06497157e-06
      5.21069751e-07 2.29508458e-07 1.36597669e-06 2.31244189e-06
      2.16981974e-07 2.49479103e-06 -1.63505899e-06 -4.04975196e-07
      -1.73573949e-06 9.15687110e-07 -7.58870584e-08 -7.58870584e-08
      -6.05271509e-07 -2.33672651e-07 -2.30505393e-07 -3.16725068e-09 0.
      0. 0. 0. 0. 0. 0. 0. 8.00157693e-07 -1.39488145e-06
      -2.10376058e-07 1.61185562e-06 -8.28920633e-07 -2.92281861e-08
      5.53413543e-07 -1.34025424e-06 1.21992827e-07 8.19306251e-07
      -7.07865411e-08 -1.11102963e-06 4.20191071e-07 -6.53253437e-07
      1.20973471e-06 7.32243336e-07 3.77018239e-07 -8.21231254e-07
      3.77018239e-07 -1.06418827e-06 1.61650604e-07 3.77018239e-07
      -6.05863647e-07 -7.58870584e-08</_></support_vectors>
  <decision_functions>
    <_>
      <sv_count>1</sv_count>
      <rho>3.0751278379360367e+00</rho>
      <alpha>
        1.</alpha>
      <index>
        0</index></_></decision_functions></my_svm>
</opencv_storage>
